Language model created by QuickLM on Tue Jun 11 10:39:31 EDT 2019
Copyright (c) 1996-2010 Carnegie Mellon University and Alexander I. Rudnicky

The model is in standard ARPA format, designed by Doug Paul while he was at MITRE.

The code that was used to produce this language model is available in Open Source.
Please visit http://www.speech.cs.cmu.edu/tools/ for more information

The (fixed) discount mass is 0.5. The backoffs are computed using the ratio method.
This model based on a corpus of 15 sentences and 17 words

\data\
ngram 1=17
ngram 2=30
ngram 3=15

\1-grams:
-0.7782 </s> -0.3010
-0.7782 <s> -0.2218
-1.9542 EIGHT -0.2218
-1.9542 FIVE -0.2218
-1.9542 FOUR -0.2218
-1.9542 GRID -0.2218
-1.9542 LEFT -0.2218
-1.9542 MOVE -0.2218
-1.9542 NINE -0.2218
-1.9542 ONE -0.2218
-1.9542 RIGHT -0.2218
-1.9542 SEVEN -0.2218
-1.9542 SIX -0.2218
-1.9542 SPIN -0.2218
-1.9542 THREE -0.2218
-1.9542 TURN -0.2218
-1.9542 TWO -0.2218

\2-grams:
-1.4771 <s> EIGHT 0.0000
-1.4771 <s> FIVE 0.0000
-1.4771 <s> FOUR 0.0000
-1.4771 <s> GRID 0.0000
-1.4771 <s> LEFT 0.0000
-1.4771 <s> MOVE 0.0000
-1.4771 <s> NINE 0.0000
-1.4771 <s> ONE 0.0000
-1.4771 <s> RIGHT 0.0000
-1.4771 <s> SEVEN 0.0000
-1.4771 <s> SIX 0.0000
-1.4771 <s> SPIN 0.0000
-1.4771 <s> THREE 0.0000
-1.4771 <s> TURN 0.0000
-1.4771 <s> TWO 0.0000
-0.3010 EIGHT </s> -0.3010
-0.3010 FIVE </s> -0.3010
-0.3010 FOUR </s> -0.3010
-0.3010 GRID </s> -0.3010
-0.3010 LEFT </s> -0.3010
-0.3010 MOVE </s> -0.3010
-0.3010 NINE </s> -0.3010
-0.3010 ONE </s> -0.3010
-0.3010 RIGHT </s> -0.3010
-0.3010 SEVEN </s> -0.3010
-0.3010 SIX </s> -0.3010
-0.3010 SPIN </s> -0.3010
-0.3010 THREE </s> -0.3010
-0.3010 TURN </s> -0.3010
-0.3010 TWO </s> -0.3010

\3-grams:
-0.3010 <s> EIGHT </s>
-0.3010 <s> FIVE </s>
-0.3010 <s> FOUR </s>
-0.3010 <s> GRID </s>
-0.3010 <s> LEFT </s>
-0.3010 <s> MOVE </s>
-0.3010 <s> NINE </s>
-0.3010 <s> ONE </s>
-0.3010 <s> RIGHT </s>
-0.3010 <s> SEVEN </s>
-0.3010 <s> SIX </s>
-0.3010 <s> SPIN </s>
-0.3010 <s> THREE </s>
-0.3010 <s> TURN </s>
-0.3010 <s> TWO </s>

\end\
